[{"weights":[[0.046376507729291916,-6.268141269683838,3.0646307468414307,-0.2718191146850586,0.33683207631111145,0.2297137975692749,-0.45865926146507263,-0.1419300138950348,0.37065476179122925,-0.2321649193763733,-0.4195869266986847,4.062832355499268],[0.2746610641479492,-0.0659826472401619,0.9287923574447632,-0.08432130515575409,-0.6926140785217285,0.2219437211751938,-0.2372547686100006,0.09604469686746597,0.057305958122015,0.04568519443273544,0.053559549152851105,0.7336834073066711],[0.7260572910308838,3.0541553497314453,2.5607385635375977,0.8068530559539795,0.22814026474952698,-1.1792305707931519,0.9455665946006775,0.6009387373924255,-0.012333869934082031,0.7221026420593262,-0.22021088004112244,2.4546780586242676]],"bias":[-0.1594119369983673,0.13659405708312988,0.16772443056106567,-0.026121895760297775,0.02573501504957676,0.016947446390986443,0.013515792787075043,-0.10163377970457077,-0.009556259959936142,-0.15616896748542786,0.04321710392832756,0.16634689271450043],"activation":"tanh"},{"weights":[[0.5256757140159607,0.6604570746421814,-0.40609779953956604,-2.940669536590576,-0.5222956538200378,-2.721193313598633,-2.5738420486450195,-2.8907580375671387],[-0.09416306018829346,0.41429078578948975,-1.175074815750122,0.8774516582489014,-0.3911132216453552,-0.25264808535575867,2.427994728088379,0.2982242703437805],[-0.6720477938652039,-0.7626712918281555,0.19925512373447418,2.1397087574005127,-0.9348669052124023,2.593865156173706,2.053392171859741,1.2439168691635132],[-0.607568621635437,-0.5585624575614929,0.7134916186332703,-0.8650069832801819,-0.3506391644477844,-0.2832712233066559,-2.160583734512329,-1.3561509847640991],[-0.2973557412624359,0.4154559075832367,-2.2432913780212402,-0.47686928510665894,-0.5079930424690247,-0.7559386491775513,-0.05382215976715088,-0.2801613509654999],[0.8462045788764954,-0.5902588963508606,-0.5452380776405334,1.616973638534546,0.6083375811576843,0.5168671011924744,1.8174521923065186,1.4887198209762573],[-0.9004283547401428,-0.27972233295440674,-0.45661666989326477,-1.1488943099975586,-0.861738920211792,-0.7763073444366455,-2.193977117538452,-1.2096083164215088],[0.5707317590713501,0.9662119746208191,-0.740276038646698,-2.067711114883423,0.25243034958839417,-2.8020474910736084,-1.9470527172088623,-1.379244327545166],[-0.4994588792324066,-0.8917728066444397,0.47195589542388916,-0.5532939434051514,-0.7136444449424744,-0.9691238403320312,-0.27199190855026245,-0.8266879320144653],[-0.38396212458610535,0.8082512021064758,-1.4352140426635742,-1.8212357759475708,-0.3443601429462433,-2.113337755203247,-2.1654956340789795,-1.2901791334152222],[0.9675766229629517,0.4344973564147949,-0.505427360534668,1.1388882398605347,0.44035226106643677,1.5539675951004028,0.5065609216690063,0.9160688519477844],[-0.7449584007263184,-0.6692402362823486,-0.08961863815784454,2.593709945678711,-0.6677647233009338,2.6414918899536133,2.6877999305725098,1.980449914932251]],"bias":[-0.18293993175029755,-0.11625596880912781,0.08354027569293976,0.12429231405258179,-0.02198396809399128,-0.17185592651367188,-0.003307599574327469,0.16229210793972015],"activation":"relu"},{"weights":[[-0.49086183309555054],[0.16473107039928436],[-0.18269598484039307],[3.9713594913482666],[-0.22763094305992126],[-2.213042974472046],[-1.9210411310195923],[2.3370227813720703]],"bias":[0.0980294719338417],"activation":"sigmoid"}]