[{"weights":[[-0.6007201075553894,-2.4125096797943115,-0.5482213497161865,0.4291665852069855,0.790566623210907,0.8147468566894531,0.46769478917121887,-4.545797348022461,0.2577933073043823,-0.09186584502458572,0.3034614026546478,-0.9902414083480835],[-0.10143037140369415,-0.012035268358886242,0.30786094069480896,0.9655801057815552,0.5253404974937439,-1.1057586669921875,-0.10264302045106888,0.13773047924041748,0.1296454668045044,-0.24798214435577393,-0.552168071269989,-0.3535182476043701],[0.4192412793636322,0.9650602340698242,-0.3218727707862854,-0.9120302200317383,-0.8520196080207825,-0.18048334121704102,-1.1859771013259888,-0.799071729183197,0.24929983913898468,0.4058229625225067,0.621665894985199,0.32264572381973267]],"bias":[0.020865436643362045,-0.02038951963186264,0.08349145948886871,-0.026475653052330017,-0.012141644954681396,0.12485898286104202,0.16770540177822113,-0.1184467226266861,-0.14176476001739502,-0.07371456176042557,-0.07240257412195206,0.15778124332427979],"activation":"tanh"},{"weights":[[-1.0937597751617432,-0.4234746992588043,-1.0330506563186646,-0.13485293090343475,-0.15211498737335205,0.2772558331489563,-0.08226659893989563,0.010417737066745758],[0.8304554224014282,1.2556586265563965,-0.46296533942222595,0.3634052574634552,-1.1890449523925781,-2.0655922889709473,-0.14505738019943237,-0.16346530616283417],[-0.2520717978477478,0.1633521467447281,3.6666622161865234,-1.7323862314224243,1.313557505607605,-1.1406440734863281,1.0088844299316406,0.9901942610740662],[-0.5170031189918518,0.08852677047252655,0.5672799944877625,0.2643124461174011,0.5427414774894714,1.160498023033142,0.6237465739250183,0.12684382498264313],[-0.24081751704216003,0.3878733813762665,1.0314651727676392,0.1487555205821991,0.1187785267829895,0.873042106628418,0.7247241139411926,-0.20256665349006653],[0.391854465007782,-0.2520083487033844,1.2821381092071533,0.053504426032304764,0.6316990256309509,1.1684720516204834,1.0292202234268188,0.13024374842643738],[-0.17122383415699005,-0.26776352524757385,1.497245192527771,-1.1342003345489502,1.3445883989334106,0.6964937448501587,3.4075162410736084,2.474337100982666],[1.8618066310882568,0.8947368264198303,4.446798324584961,2.6312503814697266,-2.961315155029297,-0.502036988735199,-2.1532812118530273,-2.44303822517395],[1.1047232151031494,1.1619563102722168,-3.4945430755615234,1.7542238235473633,-4.161005020141602,-0.9372081756591797,-2.0928053855895996,-2.3619492053985596],[-0.3764778971672058,-0.7322250604629517,-1.3522733449935913,-0.1192711740732193,-0.6169315576553345,-0.35316747426986694,-0.05610355734825134,-0.34629085659980774],[0.16622264683246613,0.24036511778831482,-3.1971774101257324,0.791947066783905,-1.4514341354370117,0.5269518494606018,-1.2807059288024902,-1.1109730005264282],[-0.778383195400238,-0.11202483624219894,-0.1557440608739853,-0.9204485416412354,1.7565068006515503,-0.7400143146514893,0.9693644046783447,1.1108578443527222]],"bias":[-0.05724871903657913,-0.05104175582528114,-0.6374956369400024,-0.10838162899017334,0.13918691873550415,-0.16324546933174133,0.051335494965314865,0.08307451754808426],"activation":"relu"},{"weights":[[0.8710564970970154],[0.08289321511983871],[-1.302882194519043],[3.414731740951538],[-1.9223536252975464],[-0.653551459312439],[3.095715284347534],[3.02246356010437]],"bias":[0.09457644820213318],"activation":"sigmoid"}]