[{"weights":[[-0.27177876234054565,-0.8246387839317322,-0.14640724658966064,-0.607469379901886,-0.6358394026756287,0.1245766282081604,-0.41102293133735657,0.601222574710846,0.29820340871810913,-0.4262535274028778,-0.8663011789321899,0.19309714436531067,0.11386885493993759,0.45449429750442505,-0.02500794269144535,0.35013601183891296],[-0.3760437071323395,-0.7085983157157898,-0.5995781421661377,-0.3051198422908783,-0.02066689357161522,0.6158932447433472,-0.802961528301239,0.2342102974653244,0.7022796273231506,-0.34395599365234375,0.13585446774959564,0.26531606912612915,-0.16153869032859802,0.8888011574745178,-0.719895601272583,0.24948441982269287],[-0.48640206456184387,0.9285264611244202,0.6381191611289978,-0.6397104263305664,0.5192753672599792,-0.06462819874286652,0.3243235647678375,-0.9375786781311035,-0.43893304467201233,1.0400081872940063,0.9843562841415405,-0.43580740690231323,0.5292494297027588,-0.8067986965179443,0.5599663257598877,-0.693757176399231],[-0.19482451677322388,1.5071699619293213,1.179914951324463,-0.16172067821025848,0.03874913975596428,0.025133546441793442,-0.7425458431243896,0.09138648957014084,-0.9982391595840454,0.8085618019104004,-0.07584449648857117,-1.0521838665008545,-0.5688161253929138,-0.8183410167694092,1.018125057220459,-1.0491539239883423]],"bias":[0.06796760112047195,-0.016351934522390366,0.038143228739500046,0.06834984570741653,-0.0537281408905983,0.019657200202345848,-0.09577019512653351,-0.03776171803474426,0.06784439086914062,-0.028039373457431793,0.05480777472257614,0.08312876522541046,0.045951198786497116,-0.019656069576740265,0.03872760757803917,-0.05891737341880798],"activation":"tanh"},{"weights":[[0.04777968302369118,-0.050053756684064865,-0.15849505364894867,-0.4176909625530243,0.004397362004965544,0.25851359963417053,-0.6391896605491638,-0.26634982228279114],[0.4871791899204254,0.41148480772972107,0.5687580108642578,-0.8925822973251343,-0.15224286913871765,0.20043295621871948,-0.6706169247627258,0.6194355487823486],[0.09826458245515823,0.33027341961860657,-0.18155579268932343,0.8684260845184326,0.06568218022584915,0.030184729024767876,-0.7404073476791382,-0.15729017555713654],[-0.17459802329540253,-0.16640417277812958,0.1071726381778717,-0.16961424052715302,0.12212563306093216,0.35037297010421753,-0.6536846160888672,0.24948209524154663],[-0.05144147574901581,0.3806459605693817,0.10187923908233643,-0.49888935685157776,0.0821508914232254,0.06513731926679611,-0.08675962686538696,-0.12894171476364136],[0.41471201181411743,0.25129833817481995,0.37658825516700745,0.2489023059606552,-0.13233987987041473,-0.28374356031417847,0.4156264066696167,-0.047296758741140366],[-0.38920852541923523,-0.18593068420886993,-0.30945828557014465,-0.3222586512565613,0.10380540788173676,-0.3297320008277893,-0.3605595827102661,-0.24523013830184937],[-0.8814626932144165,-0.11363139003515244,-0.23733799159526825,0.3974951505661011,-0.2785135805606842,0.05869606137275696,0.49463391304016113,-0.41812586784362793],[-0.7711967825889587,-0.09593439847230911,-0.5801609754562378,0.7082916498184204,0.14230988919734955,0.17338871955871582,0.522544801235199,-0.518989086151123],[-0.07856016606092453,-0.2748512029647827,0.06478520482778549,0.7284455299377441,-0.010646674782037735,-0.23964141309261322,-0.5914071202278137,0.0358467698097229],[0.9846896529197693,-0.0748405009508133,0.6063474416732788,-0.878024160861969,-0.051642995327711105,-0.2682802677154541,-0.4402919411659241,0.795783281326294],[-0.6968274712562561,0.0001774819102138281,-0.4326718747615814,-0.8668360710144043,-0.3148687779903412,-0.3111655116081238,0.40969887375831604,-0.5968788862228394],[0.09297043830156326,-0.12007956206798553,0.1663147211074829,0.6108271479606628,-0.07782959938049316,-0.2849341928958893,0.22727589309215546,0.4319808781147003],[-1.0752729177474976,0.21466371417045593,-0.5340273976325989,0.8749243021011353,0.01129632256925106,-0.04878072068095207,0.7711637020111084,-0.3299071490764618],[0.25059646368026733,-0.2237609624862671,0.3984188139438629,0.8901205062866211,0.12747706472873688,0.2516334652900696,-0.6134529113769531,0.32369667291641235],[-0.6250831484794617,-0.27362021803855896,-0.1886187195777893,-0.9227250814437866,0.35353824496269226,0.23118582367897034,0.693976640701294,-0.3910199999809265]],"bias":[0.1428261250257492,-0.02800471894443035,0.08181720972061157,0.007551505696028471,0.02453014627099037,0.040561772882938385,-0.0686638131737709,-0.07269322872161865],"activation":"relu"},{"weights":[[-0.5291042327880859,-0.7406361699104309,0.8853389620780945],[-0.11823523044586182,-0.036318205296993256,0.28186318278312683],[-0.35007888078689575,-0.9057935476303101,0.28351855278015137],[-0.733269214630127,0.624821662902832,-0.4426966905593872],[0.251982182264328,-0.1543920636177063,0.10792484134435654],[0.12269216775894165,0.18615269660949707,-0.025662928819656372],[0.8585588335990906,-0.7256985902786255,-0.5857214331626892],[-0.20347462594509125,-0.5060595273971558,0.5448660850524902]],"bias":[0.0948740690946579,-0.07395581901073456,0.05371629074215889],"activation":"sigmoid"}]