[{"weights":[[0.1852947622537613,-0.24205729365348816,-0.2644042372703552,0.05731794238090515,-0.7474153637886047,0.3036234378814697,-0.3901291787624359,-0.04289841279387474,0.40402883291244507,0.7514628171920776,0.062435831874608994,-0.3524065613746643,0.3059700131416321,-0.4647410213947296,0.7810288071632385,-0.30508360266685486],[0.08723458647727966,-0.8225786089897156,1.1846044063568115,0.1746622771024704,-0.6869938969612122,0.4623403549194336,0.010059554129838943,-0.9675236940383911,0.20706281065940857,-0.3043763041496277,-0.1952945590019226,0.1497911661863327,0.7256659865379333,-0.24799039959907532,-0.20899593830108643,0.2790623605251312],[0.636705756187439,-0.6953194737434387,-0.48769891262054443,-0.20729690790176392,0.9299122095108032,-0.2268543839454651,0.6991533637046814,0.27280956506729126,0.41480588912963867,0.2889401316642761,-0.8286597728729248,-0.3605053424835205,-0.4293375313282013,-0.5691637992858887,-0.14199529588222504,0.6623626947402954],[0.4926060140132904,-0.007448277901858091,-1.0664254426956177,-0.853115975856781,1.2592135667800903,-1.3647350072860718,0.3489700257778168,1.1714354753494263,0.5086153745651245,0.1202518567442894,-0.036324575543403625,-0.3340725004673004,-1.248639464378357,0.11630655825138092,0.5705174803733826,-0.16933158040046692]],"bias":[-0.07688810676336288,0.054338447749614716,-0.07293040305376053,0.03793266415596008,0.03761308640241623,0.0995100736618042,0.07747949659824371,-0.06749328970909119,0.052041713148355484,-0.08798227459192276,-0.02699124626815319,0.03011590801179409,0.06086620315909386,0.05804061144590378,0.08366580307483673,-0.08058684319257736],"activation":"tanh"},{"weights":[[0.0863037109375,0.2248627096414566,0.6896315217018127,0.06809324771165848,-0.25942474603652954,0.4336497485637665,-0.29401037096977234,-0.009658323600888252],[0.23769782483577728,0.1016187071800232,-0.19348381459712982,0.26556840538978577,-0.0737774521112442,-0.5633871555328369,0.029321076348423958,0.011186331510543823],[1.024397850036621,-0.2923588454723358,-1.0519144535064697,-0.2885248064994812,-0.7910333871841431,0.7194505333900452,-0.884418785572052,0.3767886161804199],[0.27587154507637024,0.07773362100124359,-0.5442036986351013,0.3602723777294159,-0.1560913771390915,-0.2926711142063141,-0.25827088952064514,0.35443034768104553],[-0.6306597590446472,0.06917886435985565,0.5134070515632629,-0.19867031276226044,-0.6887483596801758,-0.5161077380180359,-0.6486276984214783,-0.0431755967438221],[0.9555649161338806,0.1454649120569229,-0.5913187861442566,-0.13267648220062256,0.6862409114837646,0.2021319419145584,0.8251292705535889,-0.12633614242076874],[-0.8698241114616394,-0.13308267295360565,1.0373339653015137,-0.07648162543773651,0.7350011467933655,-0.021675992757081985,0.90958172082901,-0.1570829600095749],[-0.7727795243263245,-0.13810350000858307,0.8743472695350647,-0.26241081953048706,-0.7890570759773254,-0.36721304059028625,-0.8102809190750122,0.013420036062598228],[0.3144921362400055,-0.30245816707611084,0.3720186948776245,0.05353979021310806,0.05701201781630516,0.6044826507568359,-0.2825597822666168,0.10579639673233032],[-0.18870946764945984,-0.20582236349582672,0.10765314102172852,-0.2521606683731079,-0.3195549547672272,0.41588371992111206,-0.07317674905061722,0.2908540666103363],[-0.25115329027175903,-0.10294677317142487,-0.2113320231437683,-0.2002587616443634,-0.24631869792938232,-0.10160275548696518,-0.19849765300750732,0.10250744968652725],[-0.25627997517585754,0.35166704654693604,-0.49400439858436584,0.3111460506916046,-0.1450817734003067,-0.31761541962623596,-0.17709538340568542,0.10621945559978485],[0.30260294675827026,0.01959402672946453,-0.7123304009437561,-0.1427215337753296,0.5171757936477661,0.4019692540168762,0.4958638548851013,-0.23937763273715973],[-0.15754805505275726,0.19698050618171692,-0.4182242155075073,0.028503017500042915,0.0326174832880497,-0.3824891746044159,0.2369707226753235,0.22563771903514862],[0.32082992792129517,-0.330502986907959,0.10460638999938965,0.31837472319602966,-0.1228325366973877,0.3511400818824768,0.24238014221191406,-0.17666466534137726],[-0.30958476662635803,-0.29677456617355347,0.7351821660995483,-0.2862749993801117,0.2575293779373169,0.3403078317642212,0.006406688597053289,-0.25923076272010803]],"bias":[-0.05506601557135582,0.045935261994600296,0.03521988168358803,-0.061693429946899414,0.03022846207022667,-0.015174103900790215,0.04581127315759659,0.0027724767569452524],"activation":"relu"},{"weights":[[0.8103961944580078,-1.249170184135437,0.051859743893146515],[-0.0310533344745636,-0.49131715297698975,-0.032333314418792725],[-1.163315773010254,-0.47388869524002075,0.8834677338600159],[-0.17154601216316223,0.32178226113319397,-0.446781724691391],[-0.3051874041557312,1.018954873085022,-0.6203606724739075],[0.3603472113609314,-0.24765507876873016,-1.0389207601547241],[-0.41005608439445496,1.4394149780273438,-1.1870774030685425],[-0.25143954157829285,0.14053519070148468,-0.0327272042632103]],"bias":[-0.006779273506253958,0.04674890637397766,0.0020303588826209307],"activation":"sigmoid"}]