[{"weights":[[-0.5973094701766968,-0.25156116485595703,0.5506839752197266,0.5341880321502686,0.6060530543327332,-0.2522835433483124,-0.493211954832077,0.8071603178977966,-0.5213552117347717,0.6215460896492004,-0.17342285811901093,-0.41830071806907654,-0.3464359641075134,-0.4992442727088928,0.11686035245656967,-0.07748118042945862],[-0.16448082029819489,-0.4094576835632324,0.5902128219604492,0.3799761235713959,0.3738706111907959,-0.17337752878665924,0.013168021105229855,0.8949411511421204,-0.17784373462200165,0.615167498588562,0.9425259828567505,-0.500391960144043,0.46689483523368835,-0.40196675062179565,0.6101352572441101,-0.5658937692642212],[0.4575773775577545,0.4892752766609192,0.6350004076957703,-0.3571297526359558,-0.6104196310043335,0.26079922914505005,0.8267542123794556,-1.159027099609375,0.4913414716720581,-0.48299726843833923,-0.5578070878982544,-0.14515645802021027,-0.5805760622024536,-0.1775965392589569,-0.8804413676261902,0.4306471049785614],[1.024341106414795,0.2879873812198639,0.1445639282464981,0.8226096630096436,-1.0668939352035522,0.8208786845207214,0.6263322234153748,-1.1052297353744507,0.8328306078910828,-1.8775180578231812,-0.5600711107254028,-0.34243568778038025,-0.31106439232826233,0.525799036026001,-0.2953386604785919,0.5377745628356934]],"bias":[0.07923062890768051,0.015180058777332306,-0.004357529804110527,-0.031789686530828476,-0.036627091467380524,0.08891816437244415,-0.0068468754179775715,-0.028510350733995438,0.09268952161073685,-0.05593675374984741,0.043490633368492126,-0.09617409110069275,-0.08206470310688019,0.014560692012310028,-0.03796471655368805,-0.057803403586149216],"activation":"tanh"},{"weights":[[0.7344799637794495,-0.4275781512260437,0.10681803524494171,0.19594360888004303,-0.04839383810758591,0.34433645009994507,0.07556991279125214,-0.7013575434684753],[0.6504329442977905,-0.3452715575695038,-0.02527041733264923,0.06391700357198715,0.5324138402938843,0.2545373737812042,-0.6438329219818115,-0.415170282125473],[-0.08253782987594604,-0.15707887709140778,-0.24346797168254852,0.09515304118394852,0.1218419000506401,0.2712249755859375,0.4298136234283447,0.6149287819862366],[0.32738086581230164,-0.04864583909511566,0.1191532239317894,-0.20439717173576355,-0.02295677922666073,0.13874490559101105,0.00626936461776495,0.3803044259548187],[-0.572446882724762,0.4313456118106842,-0.09028567373752594,-0.20023292303085327,-0.40733247995376587,-0.2549315392971039,0.4766734540462494,0.7143818736076355],[0.7045451402664185,0.19122105836868286,0.20315873622894287,-0.1361941397190094,0.5418054461479187,-0.010481114499270916,-0.6560361981391907,-0.2142765372991562],[0.3170493245124817,0.6752556562423706,-0.1480463445186615,-0.18353720009326935,0.5484908819198608,-0.09084527939558029,-0.7042916417121887,0.34446918964385986],[-0.3801897168159485,0.5181859135627747,-0.19826854765415192,-0.04487960785627365,-0.24399684369564056,-0.07831665873527527,0.015315364114940166,0.7537356019020081],[0.7476673126220703,-0.052875906229019165,0.29325059056282043,-0.011308610439300537,0.13494956493377686,0.038698241114616394,-0.6638361215591431,-0.48926329612731934],[-0.3796999156475067,0.6158506870269775,-0.11059141904115677,0.14266934990882874,-0.24846087396144867,0.20970728993415833,0.527184009552002,0.08779624849557877],[-0.40469464659690857,-0.4750218093395233,0.2930356562137604,-0.08076640218496323,0.08915337920188904,-0.06951266527175903,0.7481972575187683,-0.4357652962207794],[0.0561273992061615,0.052660081535577774,-0.08879473805427551,0.11078429967164993,-0.48123854398727417,-0.21010780334472656,-0.02238563820719719,-0.6530997157096863],[-0.2527192533016205,-0.04902494698762894,-0.011922010220587254,-0.23786219954490662,-0.47992968559265137,0.06844253093004227,-0.0689111053943634,-0.2722540497779846],[-0.3344848155975342,-0.44526201486587524,0.18181997537612915,0.3515898585319519,-0.40195316076278687,0.26566147804260254,-0.2741718590259552,-0.5423828363418579],[-0.09323833137750626,-0.9594108462333679,0.20830804109573364,0.04522710666060448,-0.10053151845932007,0.04089899733662605,0.46254977583885193,-0.9238511323928833],[0.7786980867385864,0.5706196427345276,0.038873571902513504,0.030893681570887566,0.5517296195030212,-0.01682358607649803,-0.16380460560321808,-0.557805597782135]],"bias":[0.05628985911607742,0.05215675011277199,-0.05463424697518349,-0.0645814761519432,-0.008726676926016808,-0.01569328084588051,0.049668051302433014,0.08614334464073181],"activation":"relu"},{"weights":[[-0.3017244040966034,-0.9402660131454468,0.9116953611373901],[-0.846732497215271,1.0726308822631836,-0.41812655329704285],[0.4356693625450134,0.1448599249124527,-0.23970302939414978],[-0.21269991993904114,-0.398902952671051,-0.04776504635810852],[-0.5564355850219727,-0.4204895496368408,0.52365642786026],[-0.01885187067091465,0.04040489345788956,0.6065189242362976],[0.9712451100349426,-1.1018688678741455,-0.33539044857025146],[-0.08252587169408798,0.1591750979423523,-0.6768400073051453]],"bias":[-0.027431670576334,-0.034568920731544495,-0.016594594344496727],"activation":"sigmoid"}]